Language model created by QuickLM on Fri May 10 12:41:59 EDT 2019
Copyright (c) 1996-2010 Carnegie Mellon University and Alexander I. Rudnicky

The model is in standard ARPA format, designed by Doug Paul while he was at MITRE.

The code that was used to produce this language model is available in Open Source.
Please visit http://www.speech.cs.cmu.edu/tools/ for more information

The (fixed) discount mass is 0.5. The backoffs are computed using the ratio method.
This model based on a corpus of 10 sentences and 15 words

\data\
ngram 1=15
ngram 2=23
ngram 3=19

\1-grams:
-0.9638 </s> -0.3010
-0.9638 <s> -0.2511
-1.9638 BREAFEST -0.2511
-1.9638 JOHN -0.2511
-1.9638 KINDLE -0.2511
-1.3617 LIGHT -0.2511
-1.6628 OFF -0.2817
-1.6628 ON -0.2817
-1.3617 SAM -0.2817
-1.6628 SWITCH -0.2817
-1.3617 THE -0.2817
-1.6628 TURN -0.2817
-1.9638 VINSON -0.2511
-1.9638 WANT -0.2511
-1.9638 YOU -0.2511

\2-grams:
-1.3010 <s> BREAFEST 0.0000
-1.3010 <s> JOHN 0.0000
-1.3010 <s> KINDLE 0.0000
-0.6990 <s> SAM 0.0000
-1.3010 <s> VINSON 0.0000
-1.3010 <s> WANT 0.0000
-1.3010 <s> YOU 0.0000
-0.3010 BREAFEST </s> -0.3010
-0.3010 JOHN </s> -0.3010
-0.3010 KINDLE </s> -0.3010
-0.3010 LIGHT </s> -0.3010
-0.3010 OFF THE 0.0000
-0.3010 ON THE 0.0000
-0.6021 SAM SWITCH 0.0000
-0.6021 SAM TURN 0.0000
-0.6021 SWITCH OFF 0.0000
-0.6021 SWITCH ON 0.0000
-0.3010 THE LIGHT 0.0000
-0.6021 TURN OFF 0.0000
-0.6021 TURN ON 0.0000
-0.3010 VINSON </s> -0.3010
-0.3010 WANT </s> -0.3010
-0.3010 YOU </s> -0.3010

\3-grams:
-0.3010 <s> BREAFEST </s>
-0.3010 <s> JOHN </s>
-0.3010 <s> KINDLE </s>
-0.6021 <s> SAM SWITCH
-0.6021 <s> SAM TURN
-0.3010 <s> VINSON </s>
-0.3010 <s> WANT </s>
-0.3010 <s> YOU </s>
-0.3010 OFF THE LIGHT
-0.3010 ON THE LIGHT
-0.6021 SAM SWITCH OFF
-0.6021 SAM SWITCH ON
-0.6021 SAM TURN OFF
-0.6021 SAM TURN ON
-0.3010 SWITCH OFF THE
-0.3010 SWITCH ON THE
-0.3010 THE LIGHT </s>
-0.3010 TURN OFF THE
-0.3010 TURN ON THE

\end\
